digraph Tree {
node [shape=box] ;
0 [label="LIGHT_CODE_Dark Lights On <= 0.5\ngini = 0.8\nsamples = 9200\nvalue = [1840.0, 1840.0, 1840.0, 1840.0, 1840.0]"] ;
1 [label="LIGHT_CODE_Dark No Lights <= 0.5\ngini = 0.75\nsamples = 7066\nvalue = [1840.0, 0.0, 1840.0, 1840.0, 1840.0]"] ;
0 -> 1 [labeldistance=2.5, labelangle=45, headlabel="True"] ;
3 [label="WEATHER_CODE_Clear <= 0.5\ngini = 0.687\nsamples = 6042\nvalue = [182.867, 0.0, 1840.0, 1840.0, 1840.0]"] ;
1 -> 3 ;
5 [label="gini = 0.022\nsamples = 1938\nvalue = [21.038, 0.0, 1840.0, 0.0, 0.0]"] ;
3 -> 5 ;
6 [label="MOVEMENT_CODE_Moving Constant Speed <= 0.5\ngini = 0.539\nsamples = 4104\nvalue = [161.829, 0.0, 0.0, 1840.0, 1840.0]"] ;
3 -> 6 ;
7 [label="gini = 0.007\nsamples = 2183\nvalue = [6.473, 0.0, 0.0, 0.0, 1840.0]"] ;
6 -> 7 ;
8 [label="gini = 0.144\nsamples = 1921\nvalue = [155.356, 0.0, 0.0, 1840.0, 0.0]"] ;
6 -> 8 ;
4 [label="gini = -0.0\nsamples = 1024\nvalue = [1657.133, 0.0, 0.0, 0.0, 0.0]"] ;
1 -> 4 ;
2 [label="gini = -0.0\nsamples = 2134\nvalue = [0.0, 1840.0, 0.0, 0.0, 0.0]"] ;
0 -> 2 [labeldistance=2.5, labelangle=-45, headlabel="False"] ;
}